digraph Tree {
node [shape=box, style="filled, rounded", color="black", fontname="helvetica"] ;
edge [fontname="helvetica"] ;
0 [label=<X<SUB>5</SUB> &le; -0.052<br/>entropy = 1.0<br/>samples = 41158<br/>value = [20579, 20579]>, fillcolor="#ffffff"] ;
1 [label=<X<SUB>5</SUB> &le; -0.095<br/>entropy = 0.498<br/>samples = 1692<br/>value = [185, 1507]>, fillcolor="#51a9e8"] ;
0 -> 1 [labeldistance=2.5, labelangle=45, headlabel="True"] ;
2 [label=<entropy = 0.118<br/>samples = 755<br/>value = [12, 743]>, fillcolor="#3c9fe5"] ;
1 -> 2 ;
3 [label=<X<SUB>4</SUB> &le; 0.653<br/>entropy = 0.69<br/>samples = 937<br/>value = [173, 764]>, fillcolor="#66b3eb"] ;
1 -> 3 ;
4 [label=<entropy = 0.259<br/>samples = 504<br/>value = [22, 482]>, fillcolor="#42a1e6"] ;
3 -> 4 ;
5 [label=<X<SUB>3</SUB> &le; 0.268<br/>entropy = 0.933<br/>samples = 433<br/>value = [151, 282]>, fillcolor="#a3d1f3"] ;
3 -> 5 ;
6 [label=<X<SUB>9</SUB> &le; 0.912<br/>entropy = 0.998<br/>samples = 269<br/>value = [142, 127]>, fillcolor="#fcf2ea"] ;
5 -> 6 ;
7 [label=<entropy = 0.93<br/>samples = 214<br/>value = [140, 74]>, fillcolor="#f3c4a2"] ;
6 -> 7 ;
8 [label=<entropy = 0.225<br/>samples = 55<br/>value = [2, 53]>, fillcolor="#40a1e6"] ;
6 -> 8 ;
9 [label=<entropy = 0.307<br/>samples = 164<br/>value = [9, 155]>, fillcolor="#44a3e7"] ;
5 -> 9 ;
10 [label=<X<SUB>5</SUB> &le; 0.294<br/>entropy = 0.999<br/>samples = 39466<br/>value = [20394, 19072]>, fillcolor="#fdf7f2"] ;
0 -> 10 [labeldistance=2.5, labelangle=-45, headlabel="False"] ;
11 [label=<X<SUB>5</SUB> &le; 0.079<br/>entropy = 0.905<br/>samples = 12971<br/>value = [8815, 4156]>, fillcolor="#f1bc96"] ;
10 -> 11 ;
12 [label=<X<SUB>4</SUB> &le; 0.709<br/>entropy = 0.999<br/>samples = 4693<br/>value = [2257, 2436]>, fillcolor="#f0f8fd"] ;
11 -> 12 ;
13 [label=<X<SUB>3</SUB> &le; 0.337<br/>entropy = 0.943<br/>samples = 3112<br/>value = [1122, 1990]>, fillcolor="#a9d4f4"] ;
12 -> 13 ;
14 [label=<X<SUB>27</SUB> &le; 0.008<br/>entropy = 0.99<br/>samples = 2305<br/>value = [1017, 1288]>, fillcolor="#d5eafa"] ;
13 -> 14 ;
15 [label=<X<SUB>34</SUB> &le; 0.151<br/>entropy = 0.974<br/>samples = 860<br/>value = [512, 348]>, fillcolor="#f7d7c0"] ;
14 -> 15 ;
16 [label=<entropy = 0.792<br/>samples = 130<br/>value = [31, 99]>, fillcolor="#77bced"] ;
15 -> 16 ;
17 [label=<X<SUB>34</SUB> &le; 0.45<br/>entropy = 0.926<br/>samples = 730<br/>value = [481, 249]>, fillcolor="#f2c29f"] ;
15 -> 17 ;
18 [label=<X<SUB>34</SUB> &le; 0.234<br/>entropy = 0.689<br/>samples = 467<br/>value = [381, 86]>, fillcolor="#eb9d66"] ;
17 -> 18 ;
19 [label=<X<SUB>10</SUB> &le; -0.539<br/>entropy = 0.956<br/>samples = 170<br/>value = [106, 64]>, fillcolor="#f5cdb1"] ;
18 -> 19 ;
20 [label=<entropy = 0.873<br/>samples = 75<br/>value = [22, 53]>, fillcolor="#8bc6f0"] ;
19 -> 20 ;
21 [label=<entropy = 0.517<br/>samples = 95<br/>value = [84, 11]>, fillcolor="#e89253"] ;
19 -> 21 ;
22 [label=<entropy = 0.381<br/>samples = 297<br/>value = [275, 22]>, fillcolor="#e78b49"] ;
18 -> 22 ;
23 [label=<entropy = 0.958<br/>samples = 263<br/>value = [100, 163]>, fillcolor="#b2d9f5"] ;
17 -> 23 ;
24 [label=<X<SUB>34</SUB> &le; 0.666<br/>entropy = 0.934<br/>samples = 1445<br/>value = [505, 940]>, fillcolor="#a3d2f3"] ;
14 -> 24 ;
25 [label=<X<SUB>34</SUB> &le; 0.133<br/>entropy = 0.912<br/>samples = 1398<br/>value = [458, 940]>, fillcolor="#99cdf2"] ;
24 -> 25 ;
26 [label=<entropy = 0.8<br/>samples = 107<br/>value = [81, 26]>, fillcolor="#eda979"] ;
25 -> 26 ;
27 [label=<X<SUB>34</SUB> &le; 0.268<br/>entropy = 0.871<br/>samples = 1291<br/>value = [377, 914]>, fillcolor="#8bc5f0"] ;
25 -> 27 ;
28 [label=<entropy = 0.564<br/>samples = 423<br/>value = [56, 367]>, fillcolor="#57ace9"] ;
27 -> 28 ;
29 [label=<X<SUB>34</SUB> &le; 0.299<br/>entropy = 0.951<br/>samples = 868<br/>value = [321, 547]>, fillcolor="#add7f4"] ;
27 -> 29 ;
30 [label=<entropy = 0.41<br/>samples = 85<br/>value = [78, 7]>, fillcolor="#e78c4b"] ;
29 -> 30 ;
31 [label=<entropy = 0.894<br/>samples = 783<br/>value = [243, 540]>, fillcolor="#92c9f1"] ;
29 -> 31 ;
32 [label=<entropy = 0.0<br/>samples = 47<br/>value = [47, 0]>, fillcolor="#e58139"] ;
24 -> 32 ;
33 [label=<X<SUB>4</SUB> &le; 0.293<br/>entropy = 0.558<br/>samples = 807<br/>value = [105, 702]>, fillcolor="#57ace9"] ;
13 -> 33 ;
34 [label=<entropy = 0.116<br/>samples = 321<br/>value = [5, 316]>, fillcolor="#3c9fe5"] ;
33 -> 34 ;
35 [label=<X<SUB>9</SUB> &le; 0.789<br/>entropy = 0.733<br/>samples = 486<br/>value = [100, 386]>, fillcolor="#6cb6ec"] ;
33 -> 35 ;
36 [label=<entropy = 0.922<br/>samples = 252<br/>value = [85, 167]>, fillcolor="#9ecff2"] ;
35 -> 36 ;
37 [label=<entropy = 0.344<br/>samples = 234<br/>value = [15, 219]>, fillcolor="#47a4e7"] ;
35 -> 37 ;
38 [label=<X<SUB>27</SUB> &le; 0.057<br/>entropy = 0.858<br/>samples = 1581<br/>value = [1135, 446]>, fillcolor="#efb387"] ;
12 -> 38 ;
39 [label=<X<SUB>34</SUB> &le; 0.02<br/>entropy = 0.736<br/>samples = 1211<br/>value = [960, 251]>, fillcolor="#eca26d"] ;
38 -> 39 ;
40 [label=<entropy = 0.49<br/>samples = 75<br/>value = [8, 67]>, fillcolor="#51a9e8"] ;
39 -> 40 ;
41 [label=<entropy = 0.639<br/>samples = 1136<br/>value = [952, 184]>, fillcolor="#ea995f"] ;
39 -> 41 ;
42 [label=<X<SUB>34</SUB> &le; 0.269<br/>entropy = 0.998<br/>samples = 370<br/>value = [175, 195]>, fillcolor="#ebf5fc"] ;
38 -> 42 ;
43 [label=<entropy = 0.397<br/>samples = 140<br/>value = [11, 129]>, fillcolor="#4aa5e7"] ;
42 -> 43 ;
44 [label=<entropy = 0.865<br/>samples = 230<br/>value = [164, 66]>, fillcolor="#efb489"] ;
42 -> 44 ;
45 [label=<X<SUB>27</SUB> &le; 0.024<br/>entropy = 0.737<br/>samples = 8278<br/>value = [6558, 1720]>, fillcolor="#eca26d"] ;
11 -> 45 ;
46 [label=<X<SUB>5</SUB> &le; 0.257<br/>entropy = 0.615<br/>samples = 5411<br/>value = [4588, 823]>, fillcolor="#ea985d"] ;
45 -> 46 ;
47 [label=<X<SUB>4</SUB> &le; 0.319<br/>entropy = 0.55<br/>samples = 4638<br/>value = [4048, 590]>, fillcolor="#e99356"] ;
46 -> 47 ;
48 [label=<X<SUB>5</SUB> &le; 0.165<br/>entropy = 0.752<br/>samples = 1207<br/>value = [947, 260]>, fillcolor="#eca46f"] ;
47 -> 48 ;
49 [label=<X<SUB>9</SUB> &le; 0.587<br/>entropy = 0.959<br/>samples = 651<br/>value = [403, 248]>, fillcolor="#f5cfb3"] ;
48 -> 49 ;
50 [label=<entropy = 0.746<br/>samples = 292<br/>value = [230, 62]>, fillcolor="#eca36e"] ;
49 -> 50 ;
51 [label=<entropy = 0.999<br/>samples = 359<br/>value = [173, 186]>, fillcolor="#f1f8fd"] ;
49 -> 51 ;
52 [label=<entropy = 0.15<br/>samples = 556<br/>value = [544, 12]>, fillcolor="#e6843d"] ;
48 -> 52 ;
53 [label=<X<SUB>23</SUB> &le; 0.068<br/>entropy = 0.457<br/>samples = 3431<br/>value = [3101, 330]>, fillcolor="#e88e4e"] ;
47 -> 53 ;
54 [label=<X<SUB>27</SUB> &le; -0.01<br/>entropy = 0.405<br/>samples = 3190<br/>value = [2932, 258]>, fillcolor="#e78c4a"] ;
53 -> 54 ;
55 [label=<entropy = 0.199<br/>samples = 1330<br/>value = [1289, 41]>, fillcolor="#e6853f"] ;
54 -> 55 ;
56 [label=<X<SUB>34</SUB> &le; 0.617<br/>entropy = 0.52<br/>samples = 1860<br/>value = [1643, 217]>, fillcolor="#e89253"] ;
54 -> 56 ;
57 [label=<X<SUB>34</SUB> &le; 0.601<br/>entropy = 0.569<br/>samples = 1607<br/>value = [1391, 216]>, fillcolor="#e99558"] ;
56 -> 57 ;
58 [label=<entropy = 0.516<br/>samples = 1561<br/>value = [1381, 180]>, fillcolor="#e89153"] ;
57 -> 58 ;
59 [label=<entropy = 0.755<br/>samples = 46<br/>value = [10, 36]>, fillcolor="#70b8ec"] ;
57 -> 59 ;
60 [label=<entropy = 0.037<br/>samples = 253<br/>value = [252, 1]>, fillcolor="#e5823a"] ;
56 -> 60 ;
61 [label=<entropy = 0.88<br/>samples = 241<br/>value = [169, 72]>, fillcolor="#f0b78d"] ;
53 -> 61 ;
62 [label=<X<SUB>4</SUB> &le; 0.45<br/>entropy = 0.883<br/>samples = 773<br/>value = [540, 233]>, fillcolor="#f0b78e"] ;
46 -> 62 ;
63 [label=<X<SUB>23</SUB> &le; 0.08<br/>entropy = 0.324<br/>samples = 287<br/>value = [270, 17]>, fillcolor="#e78945"] ;
62 -> 63 ;
64 [label=<entropy = 0.091<br/>samples = 261<br/>value = [258, 3]>, fillcolor="#e5823b"] ;
63 -> 64 ;
65 [label=<entropy = 0.996<br/>samples = 26<br/>value = [12, 14]>, fillcolor="#e3f1fb"] ;
63 -> 65 ;
66 [label=<X<SUB>9</SUB> &le; 0.911<br/>entropy = 0.991<br/>samples = 486<br/>value = [270, 216]>, fillcolor="#fae6d7"] ;
62 -> 66 ;
67 [label=<X<SUB>3</SUB> &le; 0.238<br/>entropy = 0.972<br/>samples = 324<br/>value = [130, 194]>, fillcolor="#bedff6"] ;
66 -> 67 ;
68 [label=<entropy = 0.636<br/>samples = 193<br/>value = [31, 162]>, fillcolor="#5fb0ea"] ;
67 -> 68 ;
69 [label=<entropy = 0.802<br/>samples = 131<br/>value = [99, 32]>, fillcolor="#edaa79"] ;
67 -> 69 ;
70 [label=<entropy = 0.573<br/>samples = 162<br/>value = [140, 22]>, fillcolor="#e99558"] ;
66 -> 70 ;
71 [label=<X<SUB>34</SUB> &le; 0.07<br/>entropy = 0.896<br/>samples = 2867<br/>value = [1970, 897]>, fillcolor="#f1ba93"] ;
45 -> 71 ;
72 [label=<entropy = 0.306<br/>samples = 348<br/>value = [329, 19]>, fillcolor="#e78844"] ;
71 -> 72 ;
73 [label=<X<SUB>34</SUB> &le; 0.267<br/>entropy = 0.933<br/>samples = 2519<br/>value = [1641, 878]>, fillcolor="#f3c4a3"] ;
71 -> 73 ;
74 [label=<X<SUB>3</SUB> &le; -0.072<br/>entropy = 0.997<br/>samples = 760<br/>value = [354, 406]>, fillcolor="#e6f2fc"] ;
73 -> 74 ;
75 [label=<entropy = 0.765<br/>samples = 274<br/>value = [61, 213]>, fillcolor="#72b9ec"] ;
74 -> 75 ;
76 [label=<X<SUB>5</SUB> &le; 0.219<br/>entropy = 0.969<br/>samples = 486<br/>value = [293, 193]>, fillcolor="#f6d4bb"] ;
74 -> 76 ;
77 [label=<entropy = 0.899<br/>samples = 206<br/>value = [65, 141]>, fillcolor="#94caf1"] ;
76 -> 77 ;
78 [label=<X<SUB>4</SUB> &le; 0.121<br/>entropy = 0.692<br/>samples = 280<br/>value = [228, 52]>, fillcolor="#eb9e66"] ;
76 -> 78 ;
79 [label=<entropy = 0.842<br/>samples = 37<br/>value = [10, 27]>, fillcolor="#82c1ef"] ;
78 -> 79 ;
80 [label=<entropy = 0.478<br/>samples = 243<br/>value = [218, 25]>, fillcolor="#e88f50"] ;
78 -> 80 ;
81 [label=<X<SUB>5</SUB> &le; 0.215<br/>entropy = 0.839<br/>samples = 1759<br/>value = [1287, 472]>, fillcolor="#efaf82"] ;
73 -> 81 ;
82 [label=<X<SUB>4</SUB> &le; 0.681<br/>entropy = 0.693<br/>samples = 1125<br/>value = [916, 209]>, fillcolor="#eb9e66"] ;
81 -> 82 ;
83 [label=<X<SUB>5</SUB> &le; 0.125<br/>entropy = 0.851<br/>samples = 686<br/>value = [496, 190]>, fillcolor="#efb185"] ;
82 -> 83 ;
84 [label=<entropy = 1.0<br/>samples = 218<br/>value = [111, 107]>, fillcolor="#fefaf8"] ;
83 -> 84 ;
85 [label=<entropy = 0.674<br/>samples = 468<br/>value = [385, 83]>, fillcolor="#eb9c64"] ;
83 -> 85 ;
86 [label=<X<SUB>34</SUB> &le; 0.302<br/>entropy = 0.257<br/>samples = 439<br/>value = [420, 19]>, fillcolor="#e68742"] ;
82 -> 86 ;
87 [label=<entropy = 0.837<br/>samples = 15<br/>value = [4, 11]>, fillcolor="#81c1ee"] ;
86 -> 87 ;
88 [label=<entropy = 0.135<br/>samples = 424<br/>value = [416, 8]>, fillcolor="#e6833d"] ;
86 -> 88 ;
89 [label=<X<SUB>4</SUB> &le; 0.374<br/>entropy = 0.979<br/>samples = 634<br/>value = [371, 263]>, fillcolor="#f7dac5"] ;
81 -> 89 ;
90 [label=<entropy = 0.467<br/>samples = 141<br/>value = [127, 14]>, fillcolor="#e88f4f"] ;
89 -> 90 ;
91 [label=<X<SUB>34</SUB> &le; 0.269<br/>entropy = 1.0<br/>samples = 493<br/>value = [244, 249]>, fillcolor="#fbfdfe"] ;
89 -> 91 ;
92 [label=<entropy = 0.0<br/>samples = 58<br/>value = [58, 0]>, fillcolor="#e58139"] ;
91 -> 92 ;
93 [label=<X<SUB>12</SUB> &le; -0.705<br/>entropy = 0.985<br/>samples = 435<br/>value = [186, 249]>, fillcolor="#cde6f8"] ;
91 -> 93 ;
94 [label=<entropy = 0.886<br/>samples = 332<br/>value = [101, 231]>, fillcolor="#90c8f0"] ;
93 -> 94 ;
95 [label=<entropy = 0.668<br/>samples = 103<br/>value = [85, 18]>, fillcolor="#eb9c63"] ;
93 -> 95 ;
96 [label=<X<SUB>12</SUB> &le; -1.042<br/>entropy = 0.989<br/>samples = 26495<br/>value = [11579, 14916]>, fillcolor="#d3e9f9"] ;
10 -> 96 ;
97 [label=<X<SUB>27</SUB> &le; 0.008<br/>entropy = 0.725<br/>samples = 2525<br/>value = [509, 2016]>, fillcolor="#6bb6ec"] ;
96 -> 97 ;
98 [label=<X<SUB>5</SUB> &le; 0.691<br/>entropy = 0.966<br/>samples = 841<br/>value = [329, 512]>, fillcolor="#b8dcf6"] ;
97 -> 98 ;
99 [label=<entropy = 0.802<br/>samples = 479<br/>value = [117, 362]>, fillcolor="#79bded"] ;
98 -> 99 ;
100 [label=<entropy = 0.979<br/>samples = 362<br/>value = [212, 150]>, fillcolor="#f7dac5"] ;
98 -> 100 ;
101 [label=<X<SUB>10</SUB> &le; -0.462<br/>entropy = 0.49<br/>samples = 1684<br/>value = [180, 1504]>, fillcolor="#51a9e8"] ;
97 -> 101 ;
102 [label=<entropy = 0.361<br/>samples = 1398<br/>value = [96, 1302]>, fillcolor="#48a4e7"] ;
101 -> 102 ;
103 [label=<entropy = 0.873<br/>samples = 286<br/>value = [84, 202]>, fillcolor="#8bc6f0"] ;
101 -> 103 ;
104 [label=<X<SUB>5</SUB> &le; 0.708<br/>entropy = 0.996<br/>samples = 23970<br/>value = [11070, 12900]>, fillcolor="#e3f1fb"] ;
96 -> 104 ;
105 [label=<X<SUB>3</SUB> &le; 0.436<br/>entropy = 0.973<br/>samples = 14788<br/>value = [5973, 8815]>, fillcolor="#bfdff7"] ;
104 -> 105 ;
106 [label=<X<SUB>27</SUB> &le; 0.011<br/>entropy = 0.943<br/>samples = 11351<br/>value = [4088, 7263]>, fillcolor="#a8d4f4"] ;
105 -> 106 ;
107 [label=<X<SUB>23</SUB> &le; 0.017<br/>entropy = 0.997<br/>samples = 4992<br/>value = [2346, 2646]>, fillcolor="#e9f4fc"] ;
106 -> 107 ;
108 [label=<X<SUB>4</SUB> &le; 0.542<br/>entropy = 0.998<br/>samples = 3212<br/>value = [1687, 1525]>, fillcolor="#fdf3ec"] ;
107 -> 108 ;
109 [label=<X<SUB>5</SUB> &le; 0.624<br/>entropy = 0.937<br/>samples = 1113<br/>value = [720, 393]>, fillcolor="#f3c6a5"] ;
108 -> 109 ;
110 [label=<entropy = 0.854<br/>samples = 953<br/>value = [687, 266]>, fillcolor="#efb286"] ;
109 -> 110 ;
111 [label=<entropy = 0.734<br/>samples = 160<br/>value = [33, 127]>, fillcolor="#6cb6ec"] ;
109 -> 111 ;
112 [label=<X<SUB>5</SUB> &le; 0.412<br/>entropy = 0.996<br/>samples = 2099<br/>value = [967, 1132]>, fillcolor="#e2f1fb"] ;
108 -> 112 ;
113 [label=<entropy = 0.559<br/>samples = 391<br/>value = [51, 340]>, fillcolor="#57ace9"] ;
112 -> 113 ;
114 [label=<X<SUB>5</SUB> &le; 0.541<br/>entropy = 0.996<br/>samples = 1708<br/>value = [916, 792]>, fillcolor="#fbeee4"] ;
112 -> 114 ;
115 [label=<entropy = 0.93<br/>samples = 753<br/>value = [493, 260]>, fillcolor="#f3c3a1"] ;
114 -> 115 ;
116 [label=<entropy = 0.991<br/>samples = 955<br/>value = [423, 532]>, fillcolor="#d6ebfa"] ;
114 -> 116 ;
117 [label=<X<SUB>4</SUB> &le; 0.41<br/>entropy = 0.951<br/>samples = 1780<br/>value = [659, 1121]>, fillcolor="#add7f4"] ;
107 -> 117 ;
118 [label=<entropy = 0.767<br/>samples = 585<br/>value = [131, 454]>, fillcolor="#72b9ed"] ;
117 -> 118 ;
119 [label=<X<SUB>4</SUB> &le; 0.475<br/>entropy = 0.99<br/>samples = 1195<br/>value = [528, 667]>, fillcolor="#d6ebfa"] ;
117 -> 119 ;
120 [label=<entropy = 0.608<br/>samples = 87<br/>value = [74, 13]>, fillcolor="#ea975c"] ;
119 -> 120 ;
121 [label=<X<SUB>27</SUB> &le; -0.024<br/>entropy = 0.976<br/>samples = 1108<br/>value = [454, 654]>, fillcolor="#c2e1f7"] ;
119 -> 121 ;
122 [label=<entropy = 0.986<br/>samples = 386<br/>value = [220, 166]>, fillcolor="#f9e0ce"] ;
121 -> 122 ;
123 [label=<entropy = 0.909<br/>samples = 722<br/>value = [234, 488]>, fillcolor="#98ccf1"] ;
121 -> 123 ;
124 [label=<X<SUB>5</SUB> &le; 0.5<br/>entropy = 0.847<br/>samples = 6359<br/>value = [1742, 4617]>, fillcolor="#84c2ef"] ;
106 -> 124 ;
125 [label=<X<SUB>34</SUB> &le; 0.034<br/>entropy = 0.698<br/>samples = 3342<br/>value = [629, 2713]>, fillcolor="#67b4eb"] ;
124 -> 125 ;
126 [label=<X<SUB>4</SUB> &le; 0.589<br/>entropy = 0.774<br/>samples = 158<br/>value = [122, 36]>, fillcolor="#eda673"] ;
125 -> 126 ;
127 [label=<entropy = 0.27<br/>samples = 108<br/>value = [103, 5]>, fillcolor="#e68743"] ;
126 -> 127 ;
128 [label=<entropy = 0.958<br/>samples = 50<br/>value = [19, 31]>, fillcolor="#b2d9f5"] ;
126 -> 128 ;
129 [label=<X<SUB>12</SUB> &le; -0.692<br/>entropy = 0.632<br/>samples = 3184<br/>value = [507, 2677]>, fillcolor="#5eb0ea"] ;
125 -> 129 ;
130 [label=<X<SUB>10</SUB> &le; -0.489<br/>entropy = 0.506<br/>samples = 2478<br/>value = [278, 2200]>, fillcolor="#52a9e8"] ;
129 -> 130 ;
131 [label=<entropy = 0.326<br/>samples = 1629<br/>value = [97, 1532]>, fillcolor="#46a3e7"] ;
130 -> 131 ;
132 [label=<entropy = 0.748<br/>samples = 849<br/>value = [181, 668]>, fillcolor="#6fb8ec"] ;
130 -> 132 ;
133 [label=<X<SUB>34</SUB> &le; 0.649<br/>entropy = 0.909<br/>samples = 706<br/>value = [229, 477]>, fillcolor="#98ccf1"] ;
129 -> 133 ;
134 [label=<entropy = 0.847<br/>samples = 642<br/>value = [176, 466]>, fillcolor="#84c2ef"] ;
133 -> 134 ;
135 [label=<entropy = 0.662<br/>samples = 64<br/>value = [53, 11]>, fillcolor="#ea9b62"] ;
133 -> 135 ;
136 [label=<X<SUB>5</SUB> &le; 0.58<br/>entropy = 0.95<br/>samples = 3017<br/>value = [1113, 1904]>, fillcolor="#add6f4"] ;
124 -> 136 ;
137 [label=<X<SUB>34</SUB> &le; 0.266<br/>entropy = 0.99<br/>samples = 938<br/>value = [524, 414]>, fillcolor="#fae5d5"] ;
136 -> 137 ;
138 [label=<entropy = 0.804<br/>samples = 371<br/>value = [280, 91]>, fillcolor="#edaa79"] ;
137 -> 138 ;
139 [label=<X<SUB>4</SUB> &le; 0.523<br/>entropy = 0.986<br/>samples = 567<br/>value = [244, 323]>, fillcolor="#cfe7f9"] ;
137 -> 139 ;
140 [label=<entropy = 0.961<br/>samples = 268<br/>value = [165, 103]>, fillcolor="#f5d0b5"] ;
139 -> 140 ;
141 [label=<entropy = 0.833<br/>samples = 299<br/>value = [79, 220]>, fillcolor="#80c0ee"] ;
139 -> 141 ;
142 [label=<X<SUB>23</SUB> &le; 0.009<br/>entropy = 0.86<br/>samples = 2079<br/>value = [589, 1490]>, fillcolor="#87c4ef"] ;
136 -> 142 ;
143 [label=<entropy = 0.928<br/>samples = 1318<br/>value = [452, 866]>, fillcolor="#a0d0f3"] ;
142 -> 143 ;
144 [label=<entropy = 0.68<br/>samples = 761<br/>value = [137, 624]>, fillcolor="#64b3eb"] ;
142 -> 144 ;
145 [label=<X<SUB>5</SUB> &le; 0.373<br/>entropy = 0.993<br/>samples = 3437<br/>value = [1885, 1552]>, fillcolor="#fae9dc"] ;
105 -> 145 ;
146 [label=<X<SUB>4</SUB> &le; 0.347<br/>entropy = 0.673<br/>samples = 729<br/>value = [600, 129]>, fillcolor="#eb9c64"] ;
145 -> 146 ;
147 [label=<entropy = 0.098<br/>samples = 238<br/>value = [235, 3]>, fillcolor="#e5833c"] ;
146 -> 147 ;
148 [label=<entropy = 0.822<br/>samples = 491<br/>value = [365, 126]>, fillcolor="#eeac7d"] ;
146 -> 148 ;
149 [label=<X<SUB>5</SUB> &le; 0.553<br/>entropy = 0.998<br/>samples = 2708<br/>value = [1285, 1423]>, fillcolor="#ecf5fc"] ;
145 -> 149 ;
150 [label=<X<SUB>34</SUB> &le; 0.649<br/>entropy = 0.951<br/>samples = 1276<br/>value = [472, 804]>, fillcolor="#add7f4"] ;
149 -> 150 ;
151 [label=<X<SUB>10</SUB> &le; -0.834<br/>entropy = 0.92<br/>samples = 1187<br/>value = [398, 789]>, fillcolor="#9dcef2"] ;
150 -> 151 ;
152 [label=<entropy = 0.544<br/>samples = 312<br/>value = [39, 273]>, fillcolor="#55abe9"] ;
151 -> 152 ;
153 [label=<entropy = 0.977<br/>samples = 875<br/>value = [359, 516]>, fillcolor="#c3e1f7"] ;
151 -> 153 ;
154 [label=<entropy = 0.654<br/>samples = 89<br/>value = [74, 15]>, fillcolor="#ea9b61"] ;
150 -> 154 ;
155 [label=<X<SUB>12</SUB> &le; -0.769<br/>entropy = 0.987<br/>samples = 1432<br/>value = [813, 619]>, fillcolor="#f9e1d0"] ;
149 -> 155 ;
156 [label=<entropy = 0.99<br/>samples = 640<br/>value = [283, 357]>, fillcolor="#d6ebfa"] ;
155 -> 156 ;
157 [label=<X<SUB>23</SUB> &le; -0.043<br/>entropy = 0.916<br/>samples = 792<br/>value = [530, 262]>, fillcolor="#f2bf9b"] ;
155 -> 157 ;
158 [label=<X<SUB>34</SUB> &le; 0.018<br/>entropy = 0.994<br/>samples = 291<br/>value = [132, 159]>, fillcolor="#ddeefb"] ;
157 -> 158 ;
159 [label=<entropy = 0.41<br/>samples = 85<br/>value = [7, 78]>, fillcolor="#4ba6e7"] ;
158 -> 159 ;
160 [label=<entropy = 0.967<br/>samples = 206<br/>value = [125, 81]>, fillcolor="#f6d3b9"] ;
158 -> 160 ;
161 [label=<entropy = 0.733<br/>samples = 501<br/>value = [398, 103]>, fillcolor="#eca26c"] ;
157 -> 161 ;
162 [label=<X<SUB>34</SUB> &le; 0.2<br/>entropy = 0.991<br/>samples = 9182<br/>value = [5097, 4085]>, fillcolor="#fae6d8"] ;
104 -> 162 ;
163 [label=<X<SUB>5</SUB> &le; 0.942<br/>entropy = 0.931<br/>samples = 2940<br/>value = [1922, 1018]>, fillcolor="#f3c4a2"] ;
162 -> 163 ;
164 [label=<X<SUB>34</SUB> &le; 0.168<br/>entropy = 0.957<br/>samples = 2580<br/>value = [1602, 978]>, fillcolor="#f5ceb2"] ;
163 -> 164 ;
165 [label=<X<SUB>9</SUB> &le; 0.659<br/>entropy = 0.976<br/>samples = 2271<br/>value = [1342, 929]>, fillcolor="#f7d8c2"] ;
164 -> 165 ;
166 [label=<entropy = 0.883<br/>samples = 1319<br/>value = [921, 398]>, fillcolor="#f0b78f"] ;
165 -> 166 ;
167 [label=<X<SUB>34</SUB> &le; 0.034<br/>entropy = 0.99<br/>samples = 952<br/>value = [421, 531]>, fillcolor="#d6ebfa"] ;
165 -> 167 ;
168 [label=<entropy = 0.527<br/>samples = 126<br/>value = [15, 111]>, fillcolor="#54aae9"] ;
167 -> 168 ;
169 [label=<X<SUB>4</SUB> &le; 0.127<br/>entropy = 1.0<br/>samples = 826<br/>value = [406, 420]>, fillcolor="#f8fcfe"] ;
167 -> 169 ;
170 [label=<entropy = 0.0<br/>samples = 45<br/>value = [0, 45]>, fillcolor="#399de5"] ;
169 -> 170 ;
171 [label=<entropy = 0.999<br/>samples = 781<br/>value = [406, 375]>, fillcolor="#fdf5f0"] ;
169 -> 171 ;
172 [label=<entropy = 0.631<br/>samples = 309<br/>value = [260, 49]>, fillcolor="#ea995e"] ;
164 -> 172 ;
173 [label=<X<SUB>34</SUB> &le; 0.067<br/>entropy = 0.503<br/>samples = 360<br/>value = [320, 40]>, fillcolor="#e89152"] ;
163 -> 173 ;
174 [label=<entropy = 0.0<br/>samples = 201<br/>value = [201, 0]>, fillcolor="#e58139"] ;
173 -> 174 ;
175 [label=<entropy = 0.814<br/>samples = 159<br/>value = [119, 40]>, fillcolor="#eeab7c"] ;
173 -> 175 ;
176 [label=<X<SUB>23</SUB> &le; -0.018<br/>entropy = 1.0<br/>samples = 6242<br/>value = [3175, 3067]>, fillcolor="#fefbf8"] ;
162 -> 176 ;
177 [label=<X<SUB>34</SUB> &le; 0.367<br/>entropy = 0.964<br/>samples = 2742<br/>value = [1674, 1068]>, fillcolor="#f6d1b7"] ;
176 -> 177 ;
178 [label=<entropy = 0.997<br/>samples = 816<br/>value = [381, 435]>, fillcolor="#e6f3fc"] ;
177 -> 178 ;
179 [label=<X<SUB>34</SUB> &le; 0.5<br/>entropy = 0.914<br/>samples = 1926<br/>value = [1293, 633]>, fillcolor="#f2bf9a"] ;
177 -> 179 ;
180 [label=<X<SUB>34</SUB> &le; 0.468<br/>entropy = 0.745<br/>samples = 822<br/>value = [648, 174]>, fillcolor="#eca36e"] ;
179 -> 180 ;
181 [label=<X<SUB>4</SUB> &le; 0.812<br/>entropy = 0.849<br/>samples = 606<br/>value = [439, 167]>, fillcolor="#efb184"] ;
180 -> 181 ;
182 [label=<entropy = 0.722<br/>samples = 475<br/>value = [380, 95]>, fillcolor="#eca06a"] ;
181 -> 182 ;
183 [label=<entropy = 0.993<br/>samples = 131<br/>value = [59, 72]>, fillcolor="#dbedfa"] ;
181 -> 183 ;
184 [label=<entropy = 0.206<br/>samples = 216<br/>value = [209, 7]>, fillcolor="#e68540"] ;
180 -> 184 ;
185 [label=<X<SUB>34</SUB> &le; 0.533<br/>entropy = 0.979<br/>samples = 1104<br/>value = [645, 459]>, fillcolor="#f8dbc6"] ;
179 -> 185 ;
186 [label=<entropy = 0.76<br/>samples = 132<br/>value = [29, 103]>, fillcolor="#71b9ec"] ;
185 -> 186 ;
187 [label=<entropy = 0.948<br/>samples = 972<br/>value = [616, 356]>, fillcolor="#f4caab"] ;
185 -> 187 ;
188 [label=<X<SUB>4</SUB> &le; 0.735<br/>entropy = 0.985<br/>samples = 3500<br/>value = [1501, 1999]>, fillcolor="#cee7f9"] ;
176 -> 188 ;
189 [label=<X<SUB>34</SUB> &le; 0.367<br/>entropy = 1.0<br/>samples = 2451<br/>value = [1217, 1234]>, fillcolor="#fcfeff"] ;
188 -> 189 ;
190 [label=<X<SUB>27</SUB> &le; -0.004<br/>entropy = 0.966<br/>samples = 995<br/>value = [390, 605]>, fillcolor="#b9dcf6"] ;
189 -> 190 ;
191 [label=<X<SUB>5</SUB> &le; 0.952<br/>entropy = 0.897<br/>samples = 214<br/>value = [147, 67]>, fillcolor="#f1ba93"] ;
190 -> 191 ;
192 [label=<entropy = 0.69<br/>samples = 168<br/>value = [137, 31]>, fillcolor="#eb9e66"] ;
191 -> 192 ;
193 [label=<entropy = 0.755<br/>samples = 46<br/>value = [10, 36]>, fillcolor="#70b8ec"] ;
191 -> 193 ;
194 [label=<X<SUB>12</SUB> &le; -0.526<br/>entropy = 0.894<br/>samples = 781<br/>value = [243, 538]>, fillcolor="#92c9f1"] ;
190 -> 194 ;
195 [label=<entropy = 0.839<br/>samples = 731<br/>value = [196, 535]>, fillcolor="#82c1ef"] ;
194 -> 195 ;
196 [label=<entropy = 0.327<br/>samples = 50<br/>value = [47, 3]>, fillcolor="#e78946"] ;
194 -> 196 ;
197 [label=<entropy = 0.987<br/>samples = 1456<br/>value = [827, 629]>, fillcolor="#f9e1d0"] ;
189 -> 197 ;
198 [label=<X<SUB>34</SUB> &le; 0.401<br/>entropy = 0.843<br/>samples = 1049<br/>value = [284, 765]>, fillcolor="#83c1ef"] ;
188 -> 198 ;
199 [label=<X<SUB>5</SUB> &le; 0.831<br/>entropy = 0.98<br/>samples = 407<br/>value = [170, 237]>, fillcolor="#c7e3f8"] ;
198 -> 199 ;
200 [label=<entropy = 0.98<br/>samples = 226<br/>value = [132, 94]>, fillcolor="#f8dbc6"] ;
199 -> 200 ;
201 [label=<entropy = 0.741<br/>samples = 181<br/>value = [38, 143]>, fillcolor="#6eb7ec"] ;
199 -> 201 ;
202 [label=<entropy = 0.675<br/>samples = 642<br/>value = [114, 528]>, fillcolor="#64b2eb"] ;
198 -> 202 ;
}