digraph Tree {
node [shape=box, style="filled, rounded", color="black", fontname="helvetica"] ;
edge [fontname="helvetica"] ;
0 [label=<X<SUB>9</SUB> &le; -0.107<br/>entropy = 1.585<br/>samples = 23850<br/>value = [7950, 7950, 7950]>, fillcolor="#ffffff"] ;
1 [label=<X<SUB>1</SUB> &le; -0.42<br/>entropy = 1.563<br/>samples = 14456<br/>value = [5992, 3991, 4473]>, fillcolor="#fbece1"] ;
0 -> 1 [labeldistance=2.5, labelangle=45, headlabel="True"] ;
2 [label=<X<SUB>14</SUB> &le; 32035730.0<br/>entropy = 1.536<br/>samples = 8563<br/>value = [3770, 1969, 2824]>, fillcolor="#fbeade"] ;
1 -> 2 ;
3 [label=<entropy = 1.476<br/>samples = 2947<br/>value = [1536, 657, 754]>, fillcolor="#f6d2b8"] ;
2 -> 3 ;
4 [label=<X<SUB>15</SUB> &le; 235309456.0<br/>entropy = 1.55<br/>samples = 5616<br/>value = [2234, 1312, 2070]>, fillcolor="#fef9f6"] ;
2 -> 4 ;
5 [label=<entropy = 1.542<br/>samples = 3697<br/>value = [1269, 851, 1577]>, fillcolor="#efe6fc"] ;
4 -> 5 ;
6 [label=<entropy = 1.497<br/>samples = 1919<br/>value = [965, 461, 493]>, fillcolor="#f6d5bd"] ;
4 -> 6 ;
7 [label=<X<SUB>1</SUB> &le; 0.906<br/>entropy = 1.574<br/>samples = 5893<br/>value = [2222, 2022, 1649]>, fillcolor="#fef8f5"] ;
1 -> 7 ;
8 [label=<entropy = 1.583<br/>samples = 4439<br/>value = [1557, 1514, 1368]>, fillcolor="#fffdfc"] ;
7 -> 8 ;
9 [label=<X<SUB>1</SUB> &le; 2.042<br/>entropy = 1.505<br/>samples = 1454<br/>value = [665, 508, 281]>, fillcolor="#fbeade"] ;
7 -> 9 ;
10 [label=<entropy = 0.35<br/>samples = 233<br/>value = [219, 13, 1]>, fillcolor="#e78946"] ;
9 -> 10 ;
11 [label=<X<SUB>14</SUB> &le; 39039854.0<br/>entropy = 1.546<br/>samples = 1221<br/>value = [446, 495, 280]>, fillcolor="#f2fdf7"] ;
9 -> 11 ;
12 [label=<entropy = 1.551<br/>samples = 803<br/>value = [349, 242, 212]>, fillcolor="#fae7d9"] ;
11 -> 12 ;
13 [label=<entropy = 1.354<br/>samples = 418<br/>value = [97, 253, 68]>, fillcolor="#9ff2c2"] ;
11 -> 13 ;
14 [label=<X<SUB>9</SUB> &le; 1.476<br/>entropy = 1.528<br/>samples = 9394<br/>value = [1958, 3959, 3477]>, fillcolor="#effdf5"] ;
0 -> 14 [labeldistance=2.5, labelangle=-45, headlabel="False"] ;
15 [label=<X<SUB>1</SUB> &le; 0.717<br/>entropy = 1.554<br/>samples = 7043<br/>value = [1678, 2699, 2666]>, fillcolor="#fefffe"] ;
14 -> 15 ;
16 [label=<entropy = 1.545<br/>samples = 6388<br/>value = [1445, 2412, 2531]>, fillcolor="#fbf9fe"] ;
15 -> 16 ;
17 [label=<X<SUB>1</SUB> &le; 2.042<br/>entropy = 1.522<br/>samples = 655<br/>value = [233, 287, 135]>, fillcolor="#e6fcef"] ;
15 -> 17 ;
18 [label=<entropy = 0.89<br/>samples = 134<br/>value = [108, 17, 9]>, fillcolor="#eb9d65"] ;
17 -> 18 ;
19 [label=<entropy = 1.481<br/>samples = 521<br/>value = [125, 270, 126]>, fillcolor="#b7f6d1"] ;
17 -> 19 ;
20 [label=<entropy = 1.378<br/>samples = 2351<br/>value = [280, 1260, 811]>, fillcolor="#c5f7da"] ;
14 -> 20 ;
}